,return
2020-09-25,0.0034844971301418075
2020-09-28,0.010681270788298423
2020-09-29,-0.0026216427256808917
2020-09-30,0.002804514099648547
2020-10-01,0.005183981928397489
2020-10-02,-0.0055449363715241945
2020-10-05,0.013145306926843129
2020-10-06,-0.005262296922406025
2020-10-07,0.006463717942093848
2020-10-08,0.007592933989019577
2020-10-09,0.0061628948486991365
2020-10-12,0.005173845925282158
2020-10-13,-0.006049160765516066
2020-10-14,-0.001518727111815137
2020-10-15,-0.004188937190306394
2020-10-16,-0.00032351619280144976
2020-10-19,-0.004136265156411962
2020-10-20,0.004639120820719723
2020-10-21,-0.0022647317442546855
2020-10-22,0.0010375372974977851
2020-10-23,0.0018631553670705788
2020-10-26,-0.01173886892718628
2020-10-27,-0.0011012952228484736
2020-10-28,-0.024195346454345443
2020-10-29,0.003548922623549149
2020-10-30,-0.00594387068178038
2020-11-02,0.010732055518186472
2020-11-03,0.01190147442255577
2020-11-04,0.015272613172047249
2020-11-05,0.016155806972963874
2020-11-06,-0.00021461510702671337
2020-11-09,0.010175779147461992
2020-11-10,0.002669062420459404
2020-11-11,0.005110162599193375
2020-11-12,-0.00787046294331734
2020-11-13,0.008844288931133322
2020-11-16,0.008735718393448092
2020-11-17,-2.481187874095369e-05
2020-11-18,-0.004923136247840159
2020-11-19,0.003503586644622053
2020-11-20,8.313390680793872e-05
2020-11-23,0.00030591823574777847
2020-11-24,0.009732822668694772
2020-11-25,0.00019632293428814633
2020-11-27,0.002849158082788945
2020-11-30,-0.010204021400416385
2020-12-01,0.013123153358701222
2020-12-02,-3.7100948631553255e-05
2020-12-03,0.00426837585175057
2020-12-04,0.005202028884141256
2020-12-07,-0.0006362612246424348
2020-12-08,0.0018460321097704048
2020-12-09,-0.005540399396635125
2020-12-10,0.006021249284459396
2020-12-11,-0.002801979085418514
2020-12-14,-0.0008899974174528578
2020-12-15,0.00999361095386998
2020-12-16,0.0040565939365824625
2020-12-17,0.006410064369667068
2020-12-18,-0.0028254405941765923
2020-12-21,-0.008037900085719057
2020-12-22,-0.0023437702501689756
2020-12-23,0.006017884537999727
2020-12-24,0.001854182750714503
2020-12-28,0.0029547692632954283
2020-12-29,0.0025679694518896978
2020-12-30,0.0038135634761838374
2020-12-31,-0.00027928782176823346
2021-01-04,-0.002278749332812407
2021-01-05,0.009869933444896036
2021-01-06,0.0006109558936120074
2021-01-07,0.004119470255025068
2021-01-08,0.004121965691422808
2021-01-11,-0.0089401549427002
2021-01-12,0.006840643430477328
2021-01-13,0.00025675080305569955
2021-01-14,0.004649871534885061
2021-01-15,-0.010328385393067237
2021-01-19,0.007855789614304057
2021-01-20,0.008965870406524691
2021-01-21,-0.0014100335729137282
2021-01-22,-0.005010743529547017
2021-01-25,0.001763741267401217
2021-01-26,0.0004845077613701278
2021-01-27,-0.014479957013071847
2021-01-28,0.0055820051220315525
2021-01-29,-0.012239803111909862
2021-02-01,0.015945197759673766
2021-02-02,0.005131307277665341
2021-02-03,0.0022704253726074726
2021-02-04,0.0012870148289703886
2021-02-05,0.005282866718108101
2021-02-08,0.0064273041878341675
2021-02-09,0.0021451195427931993
2021-02-10,-0.0002341039215142544
2021-02-11,0.0027680420268955427
2021-02-12,0.0029327706242007778
2021-02-16,0.0002817742800559275
2021-02-17,-0.0002902258834991589
2021-02-18,-0.0059468847505714535
2021-02-19,0.0006109269768416423
2021-02-22,-0.004749743561563538
2021-02-23,0.0019909682570413627
2021-02-24,0.004204043389564765
2021-02-25,-0.017484473912150834
2021-02-26,-0.008645674972869841
2021-03-01,0.010983659901055666
2021-03-02,-0.002994594004153216
2021-03-03,-0.004514821506538666
2021-03-04,-0.007975213900846512
2021-03-05,0.007940954686506824
2021-03-08,-0.010047357241781544
2021-03-09,0.012226412324596899
2021-03-10,0.00548144486580679
2021-03-11,0.010290076214749333
2021-03-12,-0.004558872621336079
2021-03-15,0.002295628702783804
2021-03-16,-0.0001801631778132271
2021-03-17,0.0033939747230795347
2021-03-18,-0.014791259993330155
2021-03-19,0.0052767324996452515
2021-03-22,0.0009142941570285259
2021-03-23,-0.0112990367349717
2021-03-24,-0.004384628548947003
2021-03-25,0.0008610511317475441
2021-03-26,0.011928531046047297
2021-03-29,-0.0040708049497865184
2021-03-30,-0.0016990612901349388
2021-03-31,0.002618449905164715
2021-04-01,0.009818027685122422
2021-04-05,0.003973602533294201
2021-04-06,0.0008183410714522731
2021-04-07,-0.0022636435143116454
2021-04-08,0.005640180432681096
2021-04-09,-0.002252461062296519
2021-04-12,-0.0030510156867641393
2021-04-13,0.0049350772605990445
2021-04-14,0.0031687220777851448
2021-04-15,0.008446317945369127
2021-04-16,0.00231461227360946
2021-04-19,-0.0028501355359592103
2021-04-20,-0.006433326661136842
2021-04-21,0.005278244427098227
2021-04-22,-0.0021815959859822908
2021-04-23,0.0062689624528322555
2021-04-26,0.001705985708953903
2021-04-27,-0.0005249848783606012
2021-04-28,0.003544824458209686
2021-04-29,0.0009724690919503408
2021-04-30,-0.008189627717808703
2021-05-03,0.0058105537856193434
2021-05-04,-0.006303989202006463
2021-05-05,0.004130328089958977
2021-05-06,0.006580284903596531
2021-05-07,0.007554408183004687
2021-05-10,-0.007407990646949481
2021-05-11,-0.0033208346287946335
2021-05-12,-0.014963503405026259
2021-05-13,0.0027661197067425387
2021-05-14,0.012036609638831913
2021-05-17,0.0026531215900631225
2021-05-18,8.230217116018135e-05
2021-05-19,-0.005756481237098916
2021-05-20,0.0062103874123955955
2021-05-21,-0.001077086654227271
2021-05-24,0.0075162989694741375
2021-05-25,0.0013963112664482512
2021-05-26,0.002315460400889801
2021-05-27,0.002015635371038178
2021-05-28,0.0019344127206746768
2021-06-01,0.006804098829262607
2021-06-02,0.004264715174102211
2021-06-03,-0.006552310483136348
2021-06-04,0.007916116981384108
2021-06-07,0.0014435892598419695
2021-06-08,0.0008478584784165459
2021-06-09,-0.001168662802938404
2021-06-10,0.0037895544745733052
2021-06-11,-0.0004968884338014525
2021-06-14,0.0006592443384738253
2021-06-15,-0.0018302923466715858
2021-06-16,-0.0069171617882183446
2021-06-17,-0.004087232590077146
2021-06-18,-0.006869173203259729
2021-06-21,0.00840163832760402
2021-06-22,0.0005489456367146848
2021-06-23,-0.00045317064921543887
2021-06-24,0.005272475430429532
2021-06-25,0.0015048000256764034
2021-06-28,-0.0005715837002178569
2021-06-29,-0.0008424399523041448
2021-06-30,-0.0018116929641407461
2021-07-01,0.0007115250772149242
2021-07-02,0.0040566454950921845
2021-07-06,-0.006692005890043335
2021-07-07,0.001337728675882444
2021-07-08,-0.006762808818360157
2021-07-09,0.010148094025913042
2021-07-12,0.002301021772348749
2021-07-13,-0.0025889706653066647
2021-07-14,0.0016079480059655162
2021-07-15,-0.002452540590056817
2021-07-16,-0.00604138289937266
2021-07-19,-0.01334652929622534
2021-07-20,0.006324630278496133
2021-07-21,0.007294201531475465
2021-07-22,0.001961648085175049
2021-07-23,0.0008698050984115336
2021-07-26,-0.0020423715751982916
2021-07-27,-0.005208467095471643
2021-07-28,0.007466862527531097
2021-07-29,0.004196281588526788
2021-07-30,-0.0054583051712316045
2021-08-02,0.0012430682348482031
2021-08-03,0.0033900689925762855
2021-08-04,-0.003200801254612199
2021-08-05,0.0026965191223499705
2021-08-06,-0.005771627553122255
2021-08-09,-0.0035191749810879144
2021-08-10,0.001530972093433562
2021-08-11,0.004838888570395465
2021-08-12,-0.0021646777103724734
2021-08-13,0.0034144893307098915
2021-08-16,-0.002607990645071828
2021-08-17,-0.007133628531569714
2021-08-18,-0.005004633438599916
2021-08-19,-0.005502247382773023
2021-08-20,0.001065548242655808
2021-08-23,0.009858597212421891
2021-08-24,0.007370707667719963
2021-08-25,0.0005670757086399235
2021-08-26,-0.005051286774098089
2021-08-27,0.010616833879718776
2021-08-30,0.001690280410965463
2021-08-31,0.00042807364760552276
2021-09-01,0.004983093756694961
2021-09-02,0.0015824309989599383
2021-09-03,0.002445360443535505
2021-09-07,-0.0029688928710105535
2021-09-08,-0.0052936813668279905
2021-09-09,3.324426994122739e-05
2021-09-10,-0.003070987611913723
2021-09-13,0.004693111277831533
2021-09-14,-0.0030378822515940047
2021-09-15,0.0032977209859709347
2021-09-16,-0.005156598224171016
2021-09-17,-0.007652305886547311
2021-09-20,-0.012686760871624259
2021-09-21,0.0048920281430833035
2021-09-22,0.007143067667759425
2021-09-23,0.004370812448141367
2021-09-24,-0.005059750568508133
2021-09-27,0.001845809991383124
2021-09-28,-0.013454910130815255
2021-09-29,-0.0021978952940688856
2021-09-30,-0.0005988836881528433
2021-10-01,0.006049926280725477
2021-10-04,-0.00586184842557278
2021-10-05,0.0038039541090645907
2021-10-06,-0.0025857582750625934
2021-10-07,0.006469758785705024
2021-10-08,-0.0003709917730709487
2021-10-11,-0.0020385497923244428
2021-10-12,0.0014110400263156616
2021-10-13,0.00828556902798404
2021-10-14,0.007695406278515114
2021-10-15,0.003566412318234697
2021-10-18,-0.0011755324493895047
2021-10-19,0.0028465518132969147
2021-10-20,0.0035413547503866725
2021-10-21,-0.004435637550058017
2021-10-22,0.002011956669206283
2021-10-25,0.0035126088157039206
2021-10-26,-0.0009606624591810544
2021-10-27,-0.003511245601231551
2021-10-28,0.0035976143316621954
2021-10-29,-0.005191828374494414
2021-11-01,0.005788883697001272
2021-11-02,-0.0020053197675703608
2021-11-03,0.002134848408139635
2021-11-04,0.0001482966956871053
2021-11-05,0.005694096699998892
2021-11-08,0.0025263637112312256
2021-11-09,6.661246567958524e-05
2021-11-10,-0.006917436382364023
2021-11-11,0.006022336616186007
2021-11-12,0.0018459788865325644
2021-11-15,-0.0021131889332545364
2021-11-16,-0.001207789145152213
2021-11-17,-0.0020149267685787625
2021-11-18,-0.0013323774921161328
2021-11-19,-0.003859883599463489
2021-11-22,-0.006383437826743428
2021-11-23,0.0006520038623004039
2021-11-24,-0.00018112968325532412
2021-11-26,-0.020877802573747082
2021-11-29,0.002983638301450856
2021-11-30,-0.008499621811812862
2021-12-01,-0.005921399515693524
2021-12-02,0.011601102131347933
2021-12-03,-0.003952753647169301
2021-12-06,0.007319784011767969
2021-12-07,0.012659933928895205
2021-12-08,0.0025469364570293905
2021-12-09,-0.007846748453485116
2021-12-10,0.003916453446520643
2021-12-13,-0.005560792847836505
2021-12-14,-0.005227449895847523
2021-12-15,0.005124802710994362
2021-12-16,4.806952103379909e-06
2021-12-17,-0.005683944071356007
2021-12-20,-0.007973544177715819
2021-12-21,0.01104778171348106
2021-12-22,0.007253667944728109
2021-12-23,0.003408834112561268
2021-12-27,0.007537963515805109
2021-12-28,-0.0015398026753919302
2021-12-29,-0.001413467700264136
2021-12-30,0.003444728616236443
2021-12-31,-0.001092257144607145
2022-01-03,7.633882379018853e-05
2022-01-04,0.0007766674036230289
2022-01-05,-0.011525906681455898
2022-01-06,0.0006746091921498882
2022-01-07,0.0010098138254022058
2022-01-10,-0.00216693778346323
2022-01-11,0.011953145638988949
2022-01-12,0.006530254599585205
2022-01-13,-0.006746187049412292
2022-01-14,0.00017362729923961592
2022-01-18,-0.009212748976920157
2022-01-19,0.001572739087929921
2022-01-20,-0.002344177847744862
2022-01-21,-0.007729514823920718
2022-01-24,-0.004748368859016321
2022-01-25,-0.0017077435460810218
2022-01-26,-0.0051546852495007065
2022-01-27,-0.004549865099481624
2022-01-28,0.006275578468846314
2022-01-31,0.0135642303804437
2022-02-01,0.004383574098573787
2022-02-02,0.0030311406606150157
2022-02-03,-0.010225883788159168
2022-02-04,0.0008475187999288444
2022-02-07,0.0005353007533485912
2022-02-08,0.002451447449707195
2022-02-09,0.010226538912716632
2022-02-10,-0.009968879885982695
2022-02-11,-0.005060232346624843
2022-02-14,-0.003494316915836953
2022-02-15,0.008372677712312562
2022-02-16,0.0032615756224460305
2022-02-17,-0.00815568625960671
2022-02-18,-0.0029484081862605014
2022-02-22,-0.005378501205751345
2022-02-23,-0.007273190443228914
2022-02-24,-0.0033164276103526138
2022-02-25,0.012976180830496651
2022-02-28,-0.0025704292100651466
2022-03-01,-0.003149349909367368
2022-03-02,0.007672106564512851
2022-03-03,-0.006730114855229866
2022-03-04,-0.006850727190112615
2022-03-07,-0.017220374201321376
2022-03-08,0.00527167085009764
2022-03-09,0.010508252421174745
2022-03-10,-0.008640857498423275
2022-03-11,-0.007853436433776716
2022-03-14,-0.011248954096090743
2022-03-15,0.002342532046450997
2022-03-16,0.028671351804141678
2022-03-17,0.009057931209121243
2022-03-18,0.00806907235614965
2022-03-21,-0.002960094097229298
2022-03-22,0.006135097248048827
2022-03-23,-0.002269179154609529
2022-03-24,0.00472066160401402
2022-03-25,-0.0002100262031931719
2022-03-28,-0.0026198326743415083
2022-03-29,0.013316110598029738
2022-03-30,-0.0017270204297044943
2022-03-31,-0.01099586074700539
2022-04-01,0.007610322781756569
2022-04-04,0.007617354330121393
2022-04-05,-0.013643399036729375
2022-04-06,-0.008192027466774728
2022-04-07,-0.0009583585677459958
2022-04-08,-0.00045294930240678686
2022-04-11,-0.009721990615406054
2022-04-12,0.0010376739331363627
2022-04-13,0.009692516679988961
2022-04-14,-0.006440716905986794
2022-04-18,-0.001282255732947376
2022-04-19,-0.0015093316067725632
2022-04-20,0.0025757732099703045
2022-04-21,-0.010308723813388869
2022-04-22,-0.014171485503318473
2022-04-25,-0.0021791527381474435
2022-04-26,-0.014067360803056652
2022-04-27,0.00151834981834974
2022-04-28,0.011600152953949833
2022-04-29,-0.013469538185189383
2022-05-02,-0.002285187151090346
2022-05-03,0.004286851852052257
2022-05-04,0.016201671574637113
2022-05-05,-0.024656141076215405
2022-05-06,-0.008222420394261151
2022-05-09,-0.023780923809395758
2022-05-10,0.0006688848415119132
2022-05-11,-0.000923090568011782
2022-05-12,-0.0009221494003286194
2022-05-13,0.016458169019007495
2022-05-16,0.00177795603353573
2022-05-17,0.010475360626115135
2022-05-18,-0.018420322730443122
2022-05-19,0.007274604518106447
2022-05-20,0.0039680691826578605
2022-05-23,0.008577691566216723
2022-05-24,-0.002551877690503843
2022-05-25,0.004672304450936434
2022-05-26,0.01111377023359297
2022-05-27,0.010702538567547276
2022-05-31,-0.004477885485821436
2022-06-01,-0.0043509449668769655
2022-06-02,0.014901370591307255
2022-06-03,-0.009695172809861898
2022-06-06,0.00030891264402281983
2022-06-07,0.005467394144034433
2022-06-08,-0.0057321692996424945
2022-06-09,-0.014690397810194164
2022-06-10,-0.014905416000544448
2022-06-13,-0.029045618513459777
2022-06-14,-0.0030183602374487984
2022-06-15,0.014960914160675806
2022-06-16,-0.016859479455300027
2022-06-17,-0.002800125126683201
2022-06-21,0.009353926199210091
2022-06-22,-0.0041770252983198706
2022-06-23,0.0012802612331661086
2022-06-24,0.01591994458201704
2022-06-27,-0.001340697919594638
2022-06-28,-0.005955151129343719
2022-06-29,-0.0027202321225436904
2022-06-30,-0.006057747883046973
2022-07-01,0.003989055096128952
2022-07-05,-0.012409799560844393
2022-07-06,-0.00295502638150491
2022-07-07,0.012783217358061965
2022-07-08,0.0006803629692042237
2022-07-11,-0.01124903582789748
2022-07-12,-0.006639223646098109
2022-07-13,-5.240471117840776e-05
2022-07-14,-0.009712000341890924
2022-07-15,0.010848268981296132
2022-07-18,0.0017047633183657647
2022-07-19,0.015584091555824544
2022-07-20,-0.0012931947172021173
2022-07-21,0.007118885236413137
2022-07-22,-0.003137613678626957
2022-07-25,0.0036437581622323955
2022-07-26,-0.006674242144332328
2022-07-27,0.01755134061406758
2022-07-28,0.00917249014270501
2022-07-29,0.006157475585724716
2022-08-01,-0.001767522429011754
2022-08-02,-0.008108701337863185
2022-08-03,0.006196801869978889
2022-08-04,0.0028916080270774943
2022-08-05,-0.005029992820587757
2022-08-08,0.0064567880278973595
2022-08-09,-0.00376769911438376
2022-08-10,0.01372114501932854
2022-08-11,-0.0013611934707229657
2022-08-12,0.009822079352602337
2022-08-15,-0.003581183358882042
2022-08-16,-0.0018366015390498614
2022-08-17,-0.006383966697055052
2022-08-18,6.19581092132133e-05
2022-08-19,-0.012026038709252352
2022-08-22,-0.01015428957902318
2022-08-23,0.0036685535896299084
2022-08-24,0.0017374078149166143
2022-08-25,0.00945825299897058
2022-08-26,-0.016699635222675608
2022-08-29,-0.0016497718435560616
2022-08-30,-0.009275712096430924
2022-08-31,-0.006930862726621288
2022-09-01,-0.007250525799455767
2022-09-02,-0.003062653234461489
2022-09-06,-0.005470203772500377
2022-09-07,0.008684023177777027
2022-09-08,0.000235990776089547
2022-09-09,0.01524053257814141
2022-09-12,0.010680452705229307
2022-09-13,-0.02499613894179995
2022-09-14,0.0025540599234577534
2022-09-15,-0.010548375397113131
2022-09-16,-0.004142703648069931
2022-09-19,0.004738602011928393
2022-09-20,-0.009797089772362457
2022-09-21,-0.007790752250348067
2022-09-22,-0.004970812636193337
2022-09-23,-0.021137955025407627
2022-09-26,-0.015545585614078197
2022-09-27,-0.004338127496562418
2022-09-28,0.019595940963159534
2022-09-29,-0.013262449030701302
2022-09-30,-0.0027807720089285445
2022-10-03,0.022760897797687855
2022-10-04,0.023362031857769888
2022-10-05,-0.004896643822134539
2022-10-06,-0.007133637609354572
2022-10-07,-0.014082037999594326
2022-10-10,-0.008089226819896418
2022-10-11,-0.00876743491418008
2022-10-12,-0.0019041767865210903
2022-10-13,0.009910072910618165
2022-10-14,-0.01584907864095517
2022-10-17,0.017388631940210467
2022-10-18,0.004213541444540676
2022-10-19,-0.01066607274145345
2022-10-20,-0.0012609695158889431
2022-10-21,0.013036406776488077
2022-10-24,-0.007304700097514335
2022-10-25,0.013592461608422451
2022-10-26,0.006124925772354144
2022-10-27,-0.0017095343446747056
2022-10-28,0.003958792302708365
2022-10-31,-0.006664640588036064
2022-11-01,0.008446437663464772
2022-11-02,-0.012004599698712898
2022-11-03,-0.002487639103458406
2022-11-04,0.024394246631387187
2022-11-07,-0.0005748665855193761
2022-11-08,0.005619039916903936
2022-11-09,-0.014848632565136568
2022-11-10,0.036993118407697145
2022-11-11,0.012201036546341705
2022-11-14,-0.0065936272625571005
2022-11-15,0.009919454834624933
2022-11-16,-0.006386544065497332
2022-11-17,-0.004068858993372588
2022-11-18,-0.0013490727316858373
2022-11-21,-0.003629113681730131
2022-11-22,0.007469106674627754
2022-11-23,0.004709137781833939
2022-11-25,0.0006540604050841581
2022-11-28,-0.008505108425429321
2022-11-29,0.007155900581240845
2022-11-30,0.020747405211676874
2022-12-01,0.004553871153865858
2022-12-02,0.001642601995315537
2022-12-05,-0.015182081744760354
2022-12-06,-0.004588759474882239
2022-12-07,0.00071267607655518
2022-12-08,0.003528461908882345
2022-12-09,-0.003025924876992397
2022-12-12,0.0021795648378410276
2022-12-13,0.009800078136175026
2022-12-14,0.00035439096626517443
2022-12-15,-0.01579886391253846
2022-12-16,-0.00681862348729509
2022-12-19,-0.003373176950157416
2022-12-20,0.0024586118551375084
2022-12-21,0.008602044905514878
2022-12-22,-0.007411382204168825
2022-12-23,0.0026987099928233475
2022-12-27,0.00020441243899659988
2022-12-28,-0.009290106386342865
2022-12-29,0.01227404605661039
2022-12-30,-0.004367129045896812
2023-01-03,0.0004183246258299518
2023-01-04,0.009250823106939362
2023-01-05,-0.006007488562151948
2023-01-06,0.01764850796223911
2023-01-09,0.0028538930829039686
2023-01-10,0.0029268888549003258
2023-01-11,0.010200525798074487
2023-01-12,0.008606784250151467
2023-01-13,0.00353260273424493
2023-01-17,-0.0006638483804236438
2023-01-18,-0.004589289448000112
2023-01-19,0.0008433323163303117
2023-01-20,0.00676731798159448
2023-01-23,0.0029620454870296496
2023-01-24,0.0004396985144758527
2023-01-25,0.0028362454177132475
2023-01-26,0.00371283158579636
2023-01-27,-0.0031232132395233366
2023-01-30,-0.009373887793336021
2023-01-31,0.007975505940811577
2023-02-01,0.006253826674616566
2023-02-02,0.0011973091962663948
2023-02-03,-0.01473040518627434
2023-02-06,-0.006469579420743405
2023-02-07,0.005030043387358867
2023-02-08,-0.001796764701527362
2023-02-09,-0.004776017087888548
2023-02-10,-0.0015442488813710803
2023-02-13,0.005962834375641219
2023-02-14,-0.0008330315221736254
2023-02-15,-0.002141104880567884
2023-02-16,-0.005523253907264422
2023-02-17,-0.0012510985874217262
2023-02-21,-0.011785793418379336
2023-02-22,-0.004024131623149319
2023-02-23,0.005686687111196542
2023-02-24,-0.012232148864773307
2023-02-27,0.00407752648829585
2023-02-28,-0.0020927315391719332
2023-03-01,0.0032579777588162447
2023-03-02,0.0014601150279428428
2023-03-03,0.012563245304911944
2023-03-06,-0.0017814927474045243
2023-03-07,-0.01376966345318489
2023-03-08,0.0022534526857137067
2023-03-09,-0.010150605451918983
2023-03-10,-0.0022911163813093796
2023-03-13,5.405181254562887e-05
2023-03-14,0.003254245955223748
2023-03-15,-0.010117106529835801
2023-03-16,0.00795977181609326
2023-03-17,-0.004703372443210223
2023-03-20,0.005497656471613222
2023-03-21,0.00643079393685737
2023-03-22,-0.0018419991647971906
2023-03-23,0.002026720883356157
2023-03-24,0.0008605481156029456
2023-03-27,0.0018987505662840835
2023-03-28,0.003175007730157607
2023-03-29,0.00640421989631369
2023-03-30,0.008913849938490852
2023-03-31,0.006340988744628242
2023-04-03,0.005133742877747674
2023-04-04,0.0014283790056382186
2023-04-05,-0.0032156310687925203
2023-04-06,0.002532161510569151
2023-04-10,-0.0013313625300614476
2023-04-11,0.0049442299299404914
2023-04-12,0.0011941565187254572
2023-04-13,0.007352262414821089
2023-04-14,-0.0048079673514573535
2023-04-17,-0.00018942163656184696
2023-04-18,0.0009588437148201187
2023-04-19,-0.005153034134486885
2023-04-20,-0.0019003003783091004
2023-04-21,-0.0008127868732352183
2023-04-24,0.0023631784754131
2023-04-25,-0.008815762739763424
2023-04-26,-0.0026759004044359627
2023-04-27,0.008798273912471035
2023-04-28,0.006411144075452636
2023-05-01,-0.005015710873854865
2023-05-02,-0.00685228985499316
2023-05-03,-0.001056056513620752
2023-05-04,0.0014211912100152635
2023-05-05,0.010662648522748007
2023-05-08,-0.0005516508707508999
2023-05-09,-0.0020411804980403512
2023-05-10,0.0021028137999945977
2023-05-11,-0.003908363326802804
2023-05-12,-0.004902016423977737
2023-05-15,0.006452629711142631
2023-05-16,-0.008026160119607313
2023-05-17,0.0055377736229668805
2023-05-18,-0.002652735129457238
2023-05-19,0.0007298552971776251
2023-05-22,0.0017137526473004713
2023-05-23,-0.00623574941373567
2023-05-24,-0.007608096646745478
2023-05-25,-0.0029215631539393095
2023-05-26,0.010435762761840352
2023-05-30,-0.005129423846643767
2023-05-31,-0.0043089284021729304
2023-06-01,0.011627603085804086
2023-06-02,0.009907039655984266
2023-06-05,-0.002238288400047377
2023-06-06,0.0058686920997968696
2023-06-07,-0.0031217837741982267
2023-06-08,0.006002777476049483
2023-06-09,-0.000671452147750857
2023-06-12,0.0009367541075441355
2023-06-13,0.004551267715395299
2023-06-14,0.003946998686673344
2023-06-15,0.009010282155565819
2023-06-16,-0.0013233659247552459
2023-06-20,-0.008518043173210652
2023-06-21,-0.00031320058913646175
2023-06-22,-0.006071158466524273
2023-06-23,-0.0070734201206020895
2023-06-26,0.001771061162905064
2023-06-27,0.004105908755663511
2023-06-28,0.0005730471461938145
2023-06-29,-0.0015206881551699401
2023-06-30,0.008323207657790998
2023-07-03,0.0021476710032252537
2023-07-05,-0.003614966291638263
2023-07-06,-0.011986659587616365
2023-07-07,0.005698942770751198
2023-07-10,0.002150183690481853
2023-07-11,0.006916319779775382
2023-07-12,0.013107838820480592
2023-07-13,0.011085699031420882
2023-07-14,-0.005565567999051907
2023-07-17,0.00036320888405945423
2023-07-18,0.00335439698212954
2023-07-19,0.0024786438490992987
2023-07-20,-0.0051746975596214965
2023-07-21,0.0014529125901003362
2023-07-24,0.0035546927901644767
2023-07-25,0.0025934805600110818
2023-07-26,0.0031832855675286782
2023-07-27,-0.008721397870583123
2023-07-28,0.010042775646394119
2023-07-31,0.0033925404946531915
2023-08-01,-0.008678718572214805
2023-08-02,-0.013360654351117609
2023-08-03,-0.0016841825612649937
2023-08-04,0.0016937771352544876
2023-08-07,0.0018911707831610958
2023-08-08,-0.004295271803751286
2023-08-09,-0.000584971869714183
2023-08-10,-0.0008969850549409343
2023-08-11,-0.00461479224077497
2023-08-14,-0.0030308866366538624
2023-08-15,-0.008797203993585625
2023-08-16,-0.006473945560514012
2023-08-17,-0.002543615543468067
2023-08-18,0.00025062166053443615
2023-08-21,0.000770840899922329
2023-08-22,0.000684199731533912
2023-08-23,0.011991920320627545
2023-08-24,-0.007210426951805465
2023-08-25,0.0032893026314197273
2023-08-28,0.006140456636171858
2023-08-29,0.011261679549020713
2023-08-30,-0.00013056504275201094
2023-08-31,-0.0026851787769234716
2023-09-01,0.0027168410041528072
2023-09-05,-0.00650493385390645
2023-09-06,-0.002807857930124234
2023-09-07,-0.0030853194194447047
2023-09-08,0.0010311072150473999
2023-09-11,0.005666925748128345
2023-09-12,-0.0012957078703745388
2023-09-13,-0.001025186459006771
2023-09-14,0.006773138830069886
2023-09-15,-0.003382817058115035
2023-09-18,-0.0007326763247941315
2023-09-19,-0.001933039683637358
2023-09-20,-0.003126245841473475
2023-09-21,-0.012521769033851082
2023-09-22,0.0029934612307284496
2023-09-25,-0.004051080166280043
2023-09-26,-0.009303213283760813
2023-09-27,-0.0007879015758612714
2023-09-28,0.002936120415874294
2023-09-29,-0.0018841756596132812
2023-10-02,-0.009844170623141071
2023-10-03,-0.010702733274041896
2023-10-04,-0.00048121213003585894
2023-10-05,0.001349192810532179
2023-10-06,0.007328476606629433
2023-10-09,0.0061589936973711545
2023-10-10,0.0070829315267607025
2023-10-11,0.004087869989625324
2023-10-12,-0.00894827009850059
2023-10-13,0.0023652683860757055
2023-10-16,0.003818964542588624
2023-10-17,-0.0008891329311647942
2023-10-18,-0.009439695889819924
2023-10-19,-0.004752014265789644
2023-10-20,-0.005485727867947683
2023-10-23,-0.0013733413797386877
2023-10-24,0.005245265501143074
2023-10-25,-0.008343328749700563
2023-10-26,-0.002451161714122944
2023-10-27,-0.00020921099331730405
2023-10-30,0.0035738950795101577
2023-10-31,0.00034882681877993236
2023-11-01,0.007950478227299674
2023-11-02,0.015110317750582554
2023-11-03,0.00982566754163017
2023-11-06,-0.0026949172815902028
2023-11-07,-0.0027511137205775077
2023-11-08,-0.0019147160587063311
2023-11-09,-0.005742227275666001
2023-11-10,0.00595516822131392
2023-11-13,0.0014933110499847281
2023-11-14,0.020842874896167252
2023-11-15,-9.554935620664979e-06
2023-11-16,-0.0029052449073324483
2023-11-17,0.0056917192429325044
2023-11-20,0.005908747456233705
2023-11-21,-0.0021737449627444306
2023-11-22,0.0008699982375288372
2023-11-24,0.0020212855499862317
2023-11-27,-0.00027296424765592083
2023-11-28,0.0042613646987670764
2023-11-29,0.0016079241814409484
2023-11-30,-0.001287587586952125
2023-12-01,0.008328035102728983
2023-12-04,-0.0070943948443013905
2023-12-05,-0.0016008466751485353
2023-12-06,-0.001717807213747047
2023-12-07,0.0030567206474501067
2023-12-08,-0.001386817001910946
2023-12-11,0.0010697970794845597
2023-12-12,-0.0008109201113889691
2023-12-13,0.01620960834459481
2023-12-14,0.01089104592233501
2023-12-15,-0.005252325114746608
2023-12-18,0.0016063984662764306
2023-12-19,0.00728594887804669
2023-12-20,-0.009407447531795414
2023-12-21,0.009793680540594978
2023-12-22,-0.0003044467073984369
2023-12-26,0.005368188501504433
2023-12-27,0.0034668592189594756
2023-12-28,-0.0013371656099013464
2023-12-29,-0.0028494754190428015
2024-01-02,-0.008190178858347018
2024-01-03,-0.003765290828465099
2024-01-04,-0.0026353173177394336
2024-01-05,0.001188338658265057
2024-01-08,0.004076334042899901
2024-01-09,-0.004319072856254264
2024-01-10,0.0013722167147358442
2024-01-11,0.0020933777917528968
2024-01-12,0.001373464194291736
2024-01-16,-0.012244279156343432
2024-01-17,-0.007957024115417377
2024-01-18,0.0028146938176179014
2024-01-19,0.00530784882138662
2024-01-22,-0.0011215413411324348
2024-01-23,0.0005206632220539808
2024-01-24,0.003849881727164958
2024-01-25,0.005056486430846637
2024-01-26,0.0024325261698433026
2024-01-29,0.004963186725359805
2024-01-30,-0.0016181388042192885
2024-01-31,-0.006776519076470112
2024-02-01,0.007846333183610993
2024-02-02,-0.006846465632847866
2024-02-05,-0.004503412381545437
2024-02-06,0.010124853267095547
2024-02-07,0.000540122288872737
2024-02-08,0.0008444665092120204
2024-02-09,0.0041982581566977475
2024-02-12,0.0041531800305934265
2024-02-13,-0.01481729838987802
2024-02-14,0.009266421181658635
2024-02-15,0.008439048729660203
2024-02-16,0.00043131903755918086
2024-02-20,-0.0005441855459839874
2024-02-21,7.974802224121097e-05
2024-02-22,0.00838557252266849
2024-02-23,-0.0002910156820274077
2024-02-26,0.0005431683067985346
2024-02-27,0.004901684812028944
2024-02-28,-0.002792687111532968
2024-02-29,0.0036641800201324304
2024-03-01,0.010261806900511357
2024-03-04,0.0017548765191948289
2024-03-05,-0.0067206899806083855
2024-03-06,0.010720686941563543
2024-03-07,0.005069628997857331
2024-03-08,-0.001185207617467955
2024-03-11,0.0008003274354081702
2024-03-12,0.0027616167915910867
2024-03-13,0.0019664353993785054
2024-03-14,-0.00712921597405035
2024-03-15,-0.001656912228363459
2024-03-18,0.0007052372619300625
2024-03-19,-8.02339177863147e-07
2024-03-20,0.008300996887815557
2024-03-21,-0.00032567872389616283
2024-03-22,-0.0034517664175735137
2024-03-25,0.003914295740064169
2024-03-26,-0.0013124398106728911
2024-03-27,0.005817859910386185
2024-03-28,0.0035568788951325257
2024-04-01,-0.003152390219524806
2024-04-02,-0.002201481727213266
2024-04-03,0.003863964681881097
2024-04-04,-0.002648479914970714
2024-04-05,0.002390473936275902
2024-04-08,0.00646082716211544
2024-04-09,0.0017385013442914594
2024-04-10,-0.010886218918323412
2024-04-11,0.0034689520758162187
2024-04-12,-0.012245470733692311
2024-04-15,-0.006516147350416066
2024-04-16,-0.00709280218480656
2024-04-17,-0.0030043531188762187
2024-04-18,0.0010316717044439364
2024-04-19,0.0009303681151956188
2024-04-22,0.005282268657790898
2024-04-23,0.007239454686361122
2024-04-24,-0.0024481035077311506
2024-04-25,-0.0005829031992064776
2024-04-26,0.005909367888442453
2024-04-29,0.0035520533372777278
2024-04-30,-0.014876849381773773
2024-05-01,-0.0015120048075694726
2024-05-02,0.013366453548592519
2024-05-03,0.007921728907473821
2024-05-06,0.006225999297786383
2024-05-07,-0.0003421265916690394
2024-05-08,-0.0022814184340021683
2024-05-09,0.006383977382684277
2024-05-10,-0.001817572734600481
2024-05-13,0.0036871696307653763
2024-05-14,0.002878333276608171
2024-05-15,0.012300212110881796
2024-05-16,-0.0010602664319394027
2024-05-17,0.005833082885632173
2024-05-20,0.0014316289964019617
2024-05-21,-0.0013297682987787787
2024-05-22,-0.007036287536143293
2024-05-23,-0.009001705128959304
2024-05-24,0.005741539872346904
2024-05-28,0.0012443912820436893
2024-05-29,-0.010096180825203017
2024-05-30,0.0014785606730473599
2024-05-31,0.000721646251007101
2024-06-03,0.003363308981180616
2024-06-04,-0.004221272622786162
2024-06-05,0.00825674981907714
2024-06-06,0.003490572788059337
2024-06-07,-0.012246554446682044
2024-06-10,0.00399138342752658
2024-06-11,-0.0029854908473399954
2024-06-12,0.006529306002929604
2024-06-13,-0.0035490991338068007
2024-06-14,-0.000990844497392699
2024-06-17,0.002713475773213722
2024-06-18,0.002674819285563181
2024-06-20,0.00136826818614808
2024-06-21,-0.0047854639285966356
2024-06-24,0.0014030642856880725
2024-06-25,-0.0004366528738510276
2024-06-26,-0.003924485024687566
2024-06-27,0.003139476421731348
2024-06-28,-0.0021459707414741417
2024-07-01,0.002481478864845862
2024-07-02,0.0026553110544533143
2024-07-03,0.008404840001796072
2024-07-05,0.0027357360533390033
2024-07-08,-0.0023261392842723037
2024-07-09,0.000370947920063708
2024-07-10,0.005537334184176983
2024-07-11,0.006143741919476558
2024-07-12,0.004335007596384878
2024-07-15,0.0004738025794979446
2024-07-16,0.00695261566666143
2024-07-17,-0.006050520945193301
2024-07-18,-0.008743586679111397
2024-07-19,-0.005200577268794611
2024-07-22,0.006830730294107147
2024-07-23,-0.005215995204004294
2024-07-24,-0.01123146199266261
2024-07-25,-0.00577797178405007
2024-07-26,0.011209930761346727
2024-07-29,-0.001351479553390246
2024-07-30,-0.0013038492830942726
2024-07-31,0.012073458997728938
2024-08-01,-0.014404878989464185
2024-08-02,-0.009738355595739474
2024-08-05,-0.028632776616494555
2024-08-06,0.0046199994114166365
2024-08-07,-0.0019444630809262098
2024-08-08,0.01963739852253146
2024-08-09,0.005154559986345034
2024-08-12,0.003394964776496498
2024-08-13,0.01011823877675215
2024-08-14,-0.002573523868322559
2024-08-15,0.006108201810842231
2024-08-16,0.007377443850891428
2024-08-19,0.005667982879954966
2024-08-20,-0.002838726641477338
2024-08-21,0.005529897231417893
2024-08-22,-0.007766144692425394
2024-08-23,0.01788073754381884
2024-08-26,-0.0012269742247330577
2024-08-27,-0.0011186920361908382
2024-08-28,-0.008393590669607692
2024-08-29,0.0016487296308521058
2024-08-30,-0.0002446596662027161
2024-09-03,-0.01398316969131274
2024-09-04,0.00025902283491025934
2024-09-05,-0.00014293644552022182
2024-09-06,-0.015533201391720503
2024-09-09,0.010790970659457683
2024-09-10,-0.0003520303786055316
2024-09-11,0.00397012197108878
2024-09-12,0.00884703457873269
2024-09-13,0.007334513433599093
2024-09-16,0.0014695514151063537
2024-09-17,0.001883639263721956
2024-09-18,-0.004997972292191263
2024-09-19,0.017642499355333175
2024-09-20,-0.00179773700636038
2024-09-23,0.0038565750855283636
2024-09-24,0.011824409585835097
2024-09-25,-0.007982182619187277
2024-09-26,0.01148067286986939
2024-09-27,0.00118408523840287
2024-09-30,-0.0057317660931415675
2024-10-01,-0.000800810586597752
2024-10-02,0.0018103600317903896
2024-10-03,-0.0044710659373178195
2024-10-04,0.006065781334938245
2024-10-07,-0.0018657199861210501
2024-10-08,-0.007777150233529752
2024-10-09,-0.002691390742891539
2024-10-10,0.0004766557258229214
2024-10-11,0.007457299926024786
2024-10-14,0.004341819192981957
2024-10-15,-0.007965755953172345
2024-10-16,0.004844795245748654
2024-10-17,-0.004001427689276738
2024-10-18,0.007714717772909786
2024-10-21,-0.006365240696866056
2024-10-22,0.00015756157723993702
2024-10-23,-0.008757528408866976
2024-10-24,0.003814914036888426
2024-10-25,-0.003269876282320503
2024-10-28,0.003906306307142678
2024-10-29,0.0023866279638267993
2024-10-30,-0.002056777847009681
2024-10-31,-0.009967799171555396
2024-11-01,-0.0024712648503987206
2024-11-04,0.0023184593905626063
2024-11-05,0.009815737769061878
2024-11-06,0.003014980249667934
2024-11-07,0.014082061065753644
2024-11-08,-0.007247010051811836
2024-11-11,0.006256700514279331
2024-11-12,-0.009990353462649114
2024-11-13,-0.005355979515859831
2024-11-14,-0.0033129136098475264
2024-11-15,-0.002939761781142514
2024-11-18,0.008381529752087924
2024-11-19,0.0014118780275102132
2024-11-20,-0.0011408804098851175
2024-11-21,0.006180700689693708
2024-11-22,0.004308279110104975
2024-11-25,0.0025795484412757595
2024-11-26,-0.004748174103025331
2024-11-27,0.0068580056263749445
2024-11-29,0.003939469323564722
2024-12-02,-0.00045407174451843357
2024-12-03,0.002940277160714608
2024-12-04,0.005977295159160514
2024-12-05,0.0008056151620759361
2024-12-06,0.0021111977043448576
2024-12-09,0.000222030684437686
2024-12-10,-0.005660779569678153
2024-12-11,0.008292336818694138
2024-12-12,-0.0073416703853031295
2024-12-13,-0.002300850683453667
2024-12-16,0.0012389773610973604
2024-12-17,-0.0024746544713132273
2024-12-18,-0.025876412073544953
2024-12-19,-0.0062139747912296605
2024-12-20,0.006369205265221605
2024-12-23,-0.0007159694639759231
2024-12-24,0.008514247853371671
2024-12-26,-0.0017204809249494859
2024-12-27,-0.004973643387246702
2024-12-30,-0.003023568579977439
2024-12-31,-0.0014071239767875264
2025-01-02,0.0038773706124909458
2025-01-03,0.006234795771372155
2025-01-06,0.004004344056838126
2025-01-07,-0.007908988980674997
2025-01-08,-0.0037854597669775237
2025-01-10,-0.008143377585080908
2025-01-13,-0.003086413474084437
2025-01-14,0.006497183627275804
2025-01-15,0.0178682761128324
2025-01-16,-0.0004193794525332536
2025-01-17,0.006947625094810076
2025-01-21,0.007568049459594895
2025-01-22,-0.002447287386286531
2025-01-23,0.0017118690065925112
2025-01-24,0.003980676410439103
2025-01-27,-0.0071031833800053205
2025-01-28,0.0022654763190663035
2025-01-29,0.0002833874381876462
2025-01-30,0.010256823375040833
2025-01-31,-0.005085802362127519
2025-02-03,-0.009810313514764898
2025-02-04,0.006958377762917297
2025-02-05,0.0034895685123865683
2025-02-06,0.0010722707997506816
2025-02-07,-0.00740147979389697
2025-02-10,0.008668127781510715
2025-02-11,-0.001709128913667996
2025-02-12,-0.00025089510613861103
2025-02-13,0.007430494757769995
2025-02-14,0.003091738475566927
2025-02-18,0.0019639665209350387
2025-02-19,-0.0001988988901614594
2025-02-20,0.0036261224562723167
2025-02-21,-0.010417009102506983
2025-02-24,-0.003349876771786924
2025-02-25,-0.0029145058145432106
2025-02-26,-0.0020743481511933805
2025-02-27,-0.009860254432673706
2025-02-28,0.0005428476174177954
2025-03-03,-0.0026144638173517007
2025-03-04,-0.0009467516009332754
2025-03-05,0.01475787902204138
2025-03-06,-0.00871636927595711
2025-03-07,0.003083805858645673
2025-03-10,-0.022410355981393917
2025-03-11,0.0038334133307168314
2025-03-12,0.0022005051475891936
2025-03-13,-0.004801519941733133
2025-03-14,0.016288048245544775
2025-03-17,0.008462799517143639
2025-03-18,-0.0033337721779404276
2025-03-19,0.008455534266787646
2025-03-20,-0.00557441496417584
2025-03-21,-0.003714448290884543
2025-03-24,0.007887601537762506
2025-03-25,0.0014670901797234363
2025-03-26,-0.007882580197768638
2025-03-27,0.0021067990961640424
2025-03-28,-0.011275865322936758
2025-03-31,0.000559886835465174
2025-04-01,0.00404393162432855
2025-04-02,0.004077901483987307
2025-04-03,-0.02576282839916545
2025-04-04,-0.03976677440992865
2025-04-07,-0.025788256909644536
2025-04-08,-0.012525138409807653
2025-04-09,0.05924105256769206
2025-04-10,-0.02046226665334435
2025-04-11,0.019151928330577835
2025-04-14,0.010111181337126456
2025-04-15,0.0009896038810212637
2025-04-16,-0.0029039234094152947
2025-04-17,0.006219022003664178
2025-04-21,-0.005494067836030539
2025-04-22,0.01781582859118612
2025-04-23,0.00770766665340286
2025-04-24,0.010551035977258575
2025-04-25,0.0026162824263091843
2025-04-28,0.002616875937768695
2025-04-29,0.0015600474237297797
2025-04-30,-0.005109768554509539
2025-05-01,0.0018808458531391213
2025-05-02,0.00939007113050547
2025-05-05,-0.001542618340453431
2025-05-06,0.0013109093095530753
2025-05-07,-0.003474904638993302
2025-05-08,0.009259630155636257
2025-05-09,0.007782476742048239
2025-05-12,0.01105437672300674
2025-05-13,0.007957763506733015
2025-05-14,-0.005363505224892916
2025-05-15,0.0035618868653242383
2025-05-16,0.0028924406530223836
2025-05-19,0.002791935430419744
2025-05-20,0.0020038828808852656
2025-05-21,-0.007249745426982683
2025-05-22,0.001003531339526032
2025-05-23,0.0009669120283003641
2025-05-27,0.009335289145906868
2025-05-28,-0.0070387416958300475
2025-05-29,0.0033952147350919705
2025-05-30,-0.0038783363504417967
2025-06-02,0.0076308104387673706
2025-06-03,0.0022866299828668683
2025-06-04,0.002624671904732378
2025-06-05,-0.0011721664743183696
2025-06-06,0.0034848892190485854
2025-06-09,0.005899209658880642
2025-06-10,0.005070753772835474
2025-06-11,0.002999566814282882
2025-06-12,0.0007973059827014579
2025-06-13,-0.007115826843183709
2025-06-16,0.006564360171683319
2025-06-17,-0.005262775881911153
2025-06-18,-0.0011181915901230138
2025-06-20,-0.004256069079643548
2025-06-23,0.0007542312471308828
2025-06-24,0.007964548914383158
2025-06-25,-0.0011520159416979537
2025-06-26,0.0071078895756778275
2025-06-27,-0.0006063027053790996
2025-06-30,0.0053800510694853405
2025-07-01,-0.0011475818295938927
2025-07-02,0.007805987672410319
2025-07-03,0.0011696670424835502
2025-07-07,-0.007234911186039636
2025-07-08,0.003063126795049471
2025-07-09,0.005437791095558442
2025-07-10,0.0011453091320231764
2025-07-11,0.0021806581132020365
2025-07-14,7.181090207205082e-05
2025-07-15,-0.004646371011910536
2025-07-16,0.008238950937385359
2025-07-17,0.00355438870719816
2025-07-18,-0.0007701383941839692
2025-07-21,0.006230188082392687
2025-07-22,0.0035587660155575367
2025-07-23,0.0056240033919565755
2025-07-24,-0.0017650671966338526
2025-07-25,-0.0036716051169774252
2025-07-28,-0.0029768707795818057
2025-07-29,0.0028967151115663254
2025-07-30,-0.005482978656065751
2025-07-31,-0.005441248088074361
2025-08-01,-0.006251155764239272
2025-08-04,0.009893442932350657
2025-08-05,-0.0014529864973592314
2025-08-06,0.004091481173119618
2025-08-07,0.0060630392521662585
2025-08-08,0.002251504220019426
2025-08-11,-8.133114558966708e-05
2025-08-12,0.009265057930714155
2025-08-13,0.008088125739594457
2025-08-14,-0.006265796839134575
2025-08-15,-0.001238061537375268
2025-08-18,0.0005034460830350054
2025-08-19,-0.006321591002574838
2025-08-20,0.00502236837126908
2025-08-21,-0.004095096386023
2025-08-22,0.019584183763072575
2025-08-25,-0.00894083520371534
2025-08-26,0.0008054931260884481
2025-08-27,-0.00011653724285178545
2025-08-28,0.00291288819928995
2025-08-29,-0.004008470078146301
2025-09-02,-0.0014233706010353328
2025-09-03,0.0034220330579500533
2025-09-04,4.300029377530255e-05
2025-09-05,0.005174083591928222
2025-09-08,0.0053691501207950585
2025-09-09,-0.0008125746602393333
2025-09-10,0.003477292237887018
2025-09-11,0.0077272623656327
2025-09-12,0.001467409504020808
2025-09-15,0.0036237621840630283
2025-09-16,0.0015503388869816392
2025-09-17,-0.0015233476630943116
2025-09-18,0.001398106112923301
2025-09-19,-0.002423544924032536
2025-09-22,-0.0009534836791855656
2025-09-23,0.0009055935976556331
2025-09-24,-0.0018498548679252696
2025-09-25,-0.005765996984275429
2025-09-26,0.004740996380475556
2025-09-29,0.005869444860813908
2025-09-30,0.001218326496515206
2025-10-01,0.00573732965262318
